<?xml version="1.0"?>
<opencv_storage>
<cascade>
  <stageType>BOOST</stageType>
  <featureType>HAAR</featureType>
  <height>16</height>
  <width>16</width>
  <stageParams>
    <boostType>GAB</boostType>
    <minHitRate>9.9500000476837158e-01</minHitRate>
    <maxFalseAlarm>5.0000000000000000e-01</maxFalseAlarm>
    <weightTrimRate>9.4999999999999996e-01</weightTrimRate>
    <maxDepth>1</maxDepth>
    <maxWeakCount>100</maxWeakCount></stageParams>
  <featureParams>
    <maxCatCount>0</maxCatCount>
    <featSize>1</featSize>
    <mode>BASIC</mode></featureParams>
  <stageNum>13</stageNum>
  <stages>
    <!-- stage 0 -->
    <_>
      <maxWeakCount>3</maxWeakCount>
      <stageThreshold>-1.6677865982055664e+00</stageThreshold>
      <weakClassifiers>
        <_>
          <internalNodes>
            0 -1 19 -1.5466374158859253e-01</internalNodes>
          <leafValues>
            6.5384614467620850e-01 -9.9414253234863281e-01</leafValues></_>
        <_>
          <internalNodes>
            0 -1 17 -1.9627553224563599e-01</internalNodes>
          <leafValues>
            2.8890872001647949e-01 -9.9521505832672119e-01</leafValues></_>
        <_>
          <internalNodes>
            0 -1 20 -9.7834788262844086e-02</internalNodes>
          <leafValues>
            5.9230476617813110e-01 -9.6255278587341309e-01</leafValues></_></weakClassifiers></_>
    <!-- stage 1 -->
    <_>
      <maxWeakCount>3</maxWeakCount>
      <stageThreshold>-1.9861472845077515e+00</stageThreshold>
      <weakClassifiers>
        <_>
          <internalNodes>
            0 -1 6 -1.8254229426383972e-01</internalNodes>
          <leafValues>
            1.1111111193895340e-01 -9.7928130626678467e-01</leafValues></_>
        <_>
          <internalNodes>
            0 -1 31 -8.2741247024387121e-04</internalNodes>
          <leafValues>
            -1.9190784543752670e-02 -9.8835062980651855e-01</leafValues></_>
        <_>
          <internalNodes>
            0 -1 35 7.3967041680589318e-04</internalNodes>
          <leafValues>
            -9.8767518997192383e-01 3.2437935471534729e-01</leafValues></_></weakClassifiers></_>
    <!-- stage 2 -->
    <_>
      <maxWeakCount>3</maxWeakCount>
      <stageThreshold>-2.0322325229644775e+00</stageThreshold>
      <weakClassifiers>
        <_>
          <internalNodes>
            0 -1 24 7.6435066759586334e-02</internalNodes>
          <leafValues>
            -9.8492789268493652e-01 -2.0547945797443390e-01</leafValues></_>
        <_>
          <internalNodes>
            0 -1 11 -7.6773189008235931e-02</internalNodes>
          <leafValues>
            6.1541134119033813e-01 -9.0504741668701172e-01</leafValues></_>
        <_>
          <internalNodes>
            0 -1 13 7.0755779743194580e-03</internalNodes>
          <leafValues>
            -9.2170572280883789e-01 4.4677028059959412e-01</leafValues></_></weakClassifiers></_>
    <!-- stage 3 -->
    <_>
      <maxWeakCount>3</maxWeakCount>
      <stageThreshold>-1.6679819822311401e+00</stageThreshold>
      <weakClassifiers>
        <_>
          <internalNodes>
            0 -1 29 8.5527852177619934e-02</internalNodes>
          <leafValues>
            -9.7301638126373291e-01 6.6666668653488159e-01</leafValues></_>
        <_>
          <internalNodes>
            0 -1 7 2.1519136428833008e-01</internalNodes>
          <leafValues>
            -8.8359522819519043e-01 4.2913031578063965e-01</leafValues></_>
        <_>
          <internalNodes>
            0 -1 22 -1.2751582078635693e-02</internalNodes>
          <leafValues>
            1.8862955272197723e-01 -9.9322211742401123e-01</leafValues></_></weakClassifiers></_>
    <!-- stage 4 -->
    <_>
      <maxWeakCount>4</maxWeakCount>
      <stageThreshold>-2.4362680912017822e+00</stageThreshold>
      <weakClassifiers>
        <_>
          <internalNodes>
            0 -1 5 -2.9469308257102966e-01</internalNodes>
          <leafValues>
            4.2857143282890320e-01 -9.7299903631210327e-01</leafValues></_>
        <_>
          <internalNodes>
            0 -1 26 5.3139723837375641e-02</internalNodes>
          <leafValues>
            -9.3136030435562134e-01 -1.4254237711429596e-01</leafValues></_>
        <_>
          <internalNodes>
            0 -1 14 4.6301004476845264e-03</internalNodes>
          <leafValues>
            -8.8412338495254517e-01 2.2240447998046875e-01</leafValues></_>
        <_>
          <internalNodes>
            0 -1 43 7.4963713996112347e-04</internalNodes>
          <leafValues>
            -9.4869422912597656e-01 3.5221466422080994e-01</leafValues></_></weakClassifiers></_>
    <!-- stage 5 -->
    <_>
      <maxWeakCount>4</maxWeakCount>
      <stageThreshold>-2.3958852291107178e+00</stageThreshold>
      <weakClassifiers>
        <_>
          <internalNodes>
            0 -1 8 -2.5358384847640991e-01</internalNodes>
          <leafValues>
            4.6666666865348816e-01 -9.7363346815109253e-01</leafValues></_>
        <_>
          <internalNodes>
            0 -1 2 2.7859723195433617e-02</internalNodes>
          <leafValues>
            -8.8748556375503540e-01 2.5436592102050781e-01</leafValues></_>
        <_>
          <internalNodes>
            0 -1 34 1.2306393124163151e-02</internalNodes>
          <leafValues>
            -7.5468111038208008e-01 4.9863323569297791e-01</leafValues></_>
        <_>
          <internalNodes>
            0 -1 33 1.7294304445385933e-02</internalNodes>
          <leafValues>
            -9.2193675041198730e-01 3.4181818366050720e-01</leafValues></_></weakClassifiers></_>
    <!-- stage 6 -->
    <_>
      <maxWeakCount>4</maxWeakCount>
      <stageThreshold>-2.4731652736663818e+00</stageThreshold>
      <weakClassifiers>
        <_>
          <internalNodes>
            0 -1 18 1.2252049148082733e-01</internalNodes>
          <leafValues>
            -9.7238278388977051e-01 6.3636362552642822e-01</leafValues></_>
        <_>
          <internalNodes>
            0 -1 12 1.6568779945373535e-02</internalNodes>
          <leafValues>
            -9.5434874296188354e-01 -3.7863612174987793e-02</leafValues></_>
        <_>
          <internalNodes>
            0 -1 15 -1.3832740485668182e-02</internalNodes>
          <leafValues>
            1.4571723341941833e-01 -8.6347281932830811e-01</leafValues></_>
        <_>
          <internalNodes>
            0 -1 41 1.4792593719903380e-04</internalNodes>
          <leafValues>
            -8.9917504787445068e-01 3.1703898310661316e-01</leafValues></_></weakClassifiers></_>
    <!-- stage 7 -->
    <_>
      <maxWeakCount>4</maxWeakCount>
      <stageThreshold>-2.2033636569976807e+00</stageThreshold>
      <weakClassifiers>
        <_>
          <internalNodes>
            0 -1 6 -1.8222910165786743e-01</internalNodes>
          <leafValues>
            5.2631579339504242e-02 -9.7926789522171021e-01</leafValues></_>
        <_>
          <internalNodes>
            0 -1 9 2.6828419417142868e-02</internalNodes>
          <leafValues>
            -9.1809558868408203e-01 4.2118421196937561e-01</leafValues></_>
        <_>
          <internalNodes>
            0 -1 21 -5.2416607737541199e-02</internalNodes>
          <leafValues>
            8.1088536977767944e-01 -7.0739245414733887e-01</leafValues></_>
        <_>
          <internalNodes>
            0 -1 42 -1.3564800610765815e-04</internalNodes>
          <leafValues>
            4.0139228105545044e-01 -9.5420438051223755e-01</leafValues></_></weakClassifiers></_>
    <!-- stage 8 -->
    <_>
      <maxWeakCount>4</maxWeakCount>
      <stageThreshold>-2.1680750846862793e+00</stageThreshold>
      <weakClassifiers>
        <_>
          <internalNodes>
            0 -1 25 -7.1952849626541138e-02</internalNodes>
          <leafValues>
            6.6666668653488159e-01 -9.7618281841278076e-01</leafValues></_>
        <_>
          <internalNodes>
            0 -1 16 1.4960601925849915e-01</internalNodes>
          <leafValues>
            -9.2732632160186768e-01 6.4379537105560303e-01</leafValues></_>
        <_>
          <internalNodes>
            0 -1 10 8.2428157329559326e-02</internalNodes>
          <leafValues>
            -7.8698986768722534e-01 4.5994248986244202e-01</leafValues></_>
        <_>
          <internalNodes>
            0 -1 28 -1.2672583106905222e-03</internalNodes>
          <leafValues>
            6.2806785106658936e-01 -7.2450846433639526e-01</leafValues></_></weakClassifiers></_>
    <!-- stage 9 -->
    <_>
      <maxWeakCount>4</maxWeakCount>
      <stageThreshold>-2.3366806507110596e+00</stageThreshold>
      <weakClassifiers>
        <_>
          <internalNodes>
            0 -1 4 -5.2865087985992432e-02</internalNodes>
          <leafValues>
            6.3636362552642822e-01 -9.7238278388977051e-01</leafValues></_>
        <_>
          <internalNodes>
            0 -1 37 2.1452460438013077e-02</internalNodes>
          <leafValues>
            -9.1753101348876953e-01 2.0776623487472534e-01</leafValues></_>
        <_>
          <internalNodes>
            0 -1 32 -9.4890836626291275e-03</internalNodes>
          <leafValues>
            3.8533937931060791e-01 -8.4971839189529419e-01</leafValues></_>
        <_>
          <internalNodes>
            0 -1 44 -7.3960784357041121e-04</internalNodes>
          <leafValues>
            4.9197867512702942e-01 -7.2234565019607544e-01</leafValues></_></weakClassifiers></_>
    <!-- stage 10 -->
    <_>
      <maxWeakCount>4</maxWeakCount>
      <stageThreshold>-2.4737470149993896e+00</stageThreshold>
      <weakClassifiers>
        <_>
          <internalNodes>
            0 -1 0 -1.6566246747970581e-01</internalNodes>
          <leafValues>
            9.0909093618392944e-02 -9.7421848773956299e-01</leafValues></_>
        <_>
          <internalNodes>
            0 -1 30 1.1277616955339909e-02</internalNodes>
          <leafValues>
            -9.0856146812438965e-01 2.6304426789283752e-01</leafValues></_>
        <_>
          <internalNodes>
            0 -1 27 5.1059238612651825e-02</internalNodes>
          <leafValues>
            -8.3504313230514526e-01 2.3501880466938019e-01</leafValues></_>
        <_>
          <internalNodes>
            0 -1 39 7.9366459976881742e-04</internalNodes>
          <leafValues>
            2.4407601356506348e-01 -1.</leafValues></_></weakClassifiers></_>
    <!-- stage 11 -->
    <_>
      <maxWeakCount>4</maxWeakCount>
      <stageThreshold>-2.5607404708862305e+00</stageThreshold>
      <weakClassifiers>
        <_>
          <internalNodes>
            0 -1 1 1.3226556777954102e-01</internalNodes>
          <leafValues>
            -9.7174960374832153e-01 6.0000002384185791e-01</leafValues></_>
        <_>
          <internalNodes>
            0 -1 45 -3.8978920783847570e-03</internalNodes>
          <leafValues>
            4.2868041992187500e-01 -8.7552911043167114e-01</leafValues></_>
        <_>
          <internalNodes>
            0 -1 36 2.4714565370231867e-03</internalNodes>
          <leafValues>
            -9.5751428604125977e-01 2.0631276071071625e-01</leafValues></_>
        <_>
          <internalNodes>
            0 -1 23 -1.0411982657387853e-03</internalNodes>
          <leafValues>
            -9.8904341459274292e-01 2.4405249953269958e-01</leafValues></_></weakClassifiers></_>
    <!-- stage 12 -->
    <_>
      <maxWeakCount>4</maxWeakCount>
      <stageThreshold>-2.4679129123687744e+00</stageThreshold>
      <weakClassifiers>
        <_>
          <internalNodes>
            0 -1 3 -1.1236999928951263e-01</internalNodes>
          <leafValues>
            1. -9.7366732358932495e-01</leafValues></_>
        <_>
          <internalNodes>
            0 -1 19 -1.6024440526962280e-01</internalNodes>
          <leafValues>
            -2.8948843479156494e-01 -9.7354775667190552e-01</leafValues></_>
        <_>
          <internalNodes>
            0 -1 38 5.7006962597370148e-03</internalNodes>
          <leafValues>
            -8.7655091285705566e-01 2.2186405956745148e-01</leafValues></_>
        <_>
          <internalNodes>
            0 -1 40 3.3837498631328344e-04</internalNodes>
          <leafValues>
            3.5585314035415649e-01 -8.3349049091339111e-01</leafValues></_></weakClassifiers></_></stages>
  <features>
    <_>
      <rects>
        <_>
          0 0 6 14 -1.</_>
        <_>
          3 0 3 14 2.</_></rects>
      <tilted>0</tilted></_>
    <_>
      <rects>
        <_>
          0 6 4 8 -1.</_>
        <_>
          2 6 2 8 2.</_></rects>
      <tilted>0</tilted></_>
    <_>
      <rects>
        <_>
          1 4 4 3 -1.</_>
        <_>
          3 4 2 3 2.</_></rects>
      <tilted>0</tilted></_>
    <_>
      <rects>
        <_>
          1 4 8 3 -1.</_>
        <_>
          5 4 4 3 2.</_></rects>
      <tilted>0</tilted></_>
    <_>
      <rects>
        <_>
          2 1 4 5 -1.</_>
        <_>
          4 1 2 5 2.</_></rects>
      <tilted>0</tilted></_>
    <_>
      <rects>
        <_>
          2 2 12 8 -1.</_>
        <_>
          2 2 6 4 2.</_>
        <_>
          8 6 6 4 2.</_></rects>
      <tilted>0</tilted></_>
    <_>
      <rects>
        <_>
          2 7 10 3 -1.</_>
        <_>
          7 7 5 3 2.</_></rects>
      <tilted>0</tilted></_>
    <_>
      <rects>
        <_>
          2 8 10 8 -1.</_>
        <_>
          2 8 5 4 2.</_>
        <_>
          7 12 5 4 2.</_></rects>
      <tilted>0</tilted></_>
    <_>
      <rects>
        <_>
          3 1 6 9 -1.</_>
        <_>
          3 4 6 3 3.</_></rects>
      <tilted>0</tilted></_>
    <_>
      <rects>
        <_>
          3 2 12 1 -1.</_>
        <_>
          7 2 4 1 3.</_></rects>
      <tilted>0</tilted></_>
    <_>
      <rects>
        <_>
          3 5 6 6 -1.</_>
        <_>
          3 7 6 2 3.</_></rects>
      <tilted>0</tilted></_>
    <_>
      <rects>
        <_>
          3 6 3 6 -1.</_>
        <_>
          3 9 3 3 2.</_></rects>
      <tilted>0</tilted></_>
    <_>
      <rects>
        <_>
          3 7 5 3 -1.</_>
        <_>
          3 8 5 1 3.</_></rects>
      <tilted>0</tilted></_>
    <_>
      <rects>
        <_>
          3 8 3 3 -1.</_>
        <_>
          3 9 3 1 3.</_></rects>
      <tilted>0</tilted></_>
    <_>
      <rects>
        <_>
          3 15 6 1 -1.</_>
        <_>
          6 15 3 1 2.</_></rects>
      <tilted>0</tilted></_>
    <_>
      <rects>
        <_>
          4 4 2 9 -1.</_>
        <_>
          5 4 1 9 2.</_></rects>
      <tilted>0</tilted></_>
    <_>
      <rects>
        <_>
          4 5 4 9 -1.</_>
        <_>
          4 8 4 3 3.</_></rects>
      <tilted>0</tilted></_>
    <_>
      <rects>
        <_>
          4 6 12 6 -1.</_>
        <_>
          8 6 4 6 3.</_></rects>
      <tilted>0</tilted></_>
    <_>
      <rects>
        <_>
          4 7 3 9 -1.</_>
        <_>
          4 10 3 3 3.</_></rects>
      <tilted>0</tilted></_>
    <_>
      <rects>
        <_>
          4 7 12 3 -1.</_>
        <_>
          8 7 4 3 3.</_></rects>
      <tilted>0</tilted></_>
    <_>
      <rects>
        <_>
          4 7 8 4 -1.</_>
        <_>
          8 7 4 4 2.</_></rects>
      <tilted>0</tilted></_>
    <_>
      <rects>
        <_>
          5 0 3 6 -1.</_>
        <_>
          5 3 3 3 2.</_></rects>
      <tilted>0</tilted></_>
    <_>
      <rects>
        <_>
          5 4 2 10 -1.</_>
        <_>
          6 4 1 10 2.</_></rects>
      <tilted>0</tilted></_>
    <_>
      <rects>
        <_>
          5 6 3 4 -1.</_>
        <_>
          6 6 1 4 3.</_></rects>
      <tilted>0</tilted></_>
    <_>
      <rects>
        <_>
          5 6 3 6 -1.</_>
        <_>
          5 8 3 2 3.</_></rects>
      <tilted>0</tilted></_>
    <_>
      <rects>
        <_>
          5 7 6 2 -1.</_>
        <_>
          8 7 3 2 2.</_></rects>
      <tilted>0</tilted></_>
    <_>
      <rects>
        <_>
          6 0 6 6 -1.</_>
        <_>
          6 2 6 2 3.</_></rects>
      <tilted>0</tilted></_>
    <_>
      <rects>
        <_>
          6 1 10 6 -1.</_>
        <_>
          6 1 5 3 2.</_>
        <_>
          11 4 5 3 2.</_></rects>
      <tilted>0</tilted></_>
    <_>
      <rects>
        <_>
          6 4 1 2 -1.</_>
        <_>
          6 5 1 1 2.</_></rects>
      <tilted>0</tilted></_>
    <_>
      <rects>
        <_>
          7 0 6 4 -1.</_>
        <_>
          7 2 6 2 2.</_></rects>
      <tilted>0</tilted></_>
    <_>
      <rects>
        <_>
          7 1 3 3 -1.</_>
        <_>
          7 2 3 1 3.</_></rects>
      <tilted>0</tilted></_>
    <_>
      <rects>
        <_>
          7 3 1 2 -1.</_>
        <_>
          7 4 1 1 2.</_></rects>
      <tilted>0</tilted></_>
    <_>
      <rects>
        <_>
          7 8 2 2 -1.</_>
        <_>
          8 8 1 2 2.</_></rects>
      <tilted>0</tilted></_>
    <_>
      <rects>
        <_>
          7 11 5 4 -1.</_>
        <_>
          7 13 5 2 2.</_></rects>
      <tilted>0</tilted></_>
    <_>
      <rects>
        <_>
          7 14 4 2 -1.</_>
        <_>
          7 15 4 1 2.</_></rects>
      <tilted>0</tilted></_>
    <_>
      <rects>
        <_>
          8 13 1 2 -1.</_>
        <_>
          8 14 1 1 2.</_></rects>
      <tilted>0</tilted></_>
    <_>
      <rects>
        <_>
          9 6 4 2 -1.</_>
        <_>
          11 6 2 2 2.</_></rects>
      <tilted>0</tilted></_>
    <_>
      <rects>
        <_>
          10 2 6 4 -1.</_>
        <_>
          10 2 3 2 2.</_>
        <_>
          13 4 3 2 2.</_></rects>
      <tilted>0</tilted></_>
    <_>
      <rects>
        <_>
          10 3 2 7 -1.</_>
        <_>
          11 3 1 7 2.</_></rects>
      <tilted>0</tilted></_>
    <_>
      <rects>
        <_>
          11 5 3 2 -1.</_>
        <_>
          12 5 1 2 3.</_></rects>
      <tilted>0</tilted></_>
    <_>
      <rects>
        <_>
          11 6 2 10 -1.</_>
        <_>
          11 6 1 5 2.</_>
        <_>
          12 11 1 5 2.</_></rects>
      <tilted>0</tilted></_>
    <_>
      <rects>
        <_>
          11 13 2 1 -1.</_>
        <_>
          12 13 1 1 2.</_></rects>
      <tilted>0</tilted></_>
    <_>
      <rects>
        <_>
          13 5 1 2 -1.</_>
        <_>
          13 6 1 1 2.</_></rects>
      <tilted>0</tilted></_>
    <_>
      <rects>
        <_>
          13 9 2 1 -1.</_>
        <_>
          14 9 1 1 2.</_></rects>
      <tilted>0</tilted></_>
    <_>
      <rects>
        <_>
          14 2 2 2 -1.</_>
        <_>
          15 2 1 2 2.</_></rects>
      <tilted>0</tilted></_>
    <_>
      <rects>
        <_>
          14 14 1 2 -1.</_>
        <_>
          14 15 1 1 2.</_></rects>
      <tilted>0</tilted></_></features></cascade>
</opencv_storage>
